<?xml version="1.0"?>
<opencv_storage>
<stage10>
  <maxWeakCount>6</maxWeakCount>
  <stageThreshold>-4.6011176705360413e-01</stageThreshold>
  <weakClassifiers>
    <_>
      <internalNodes>
        0 -1 20082 -1.0914749000221491e-03</internalNodes>
      <leafValues>
        5.3765326738357544e-01 -7.8846156597137451e-01</leafValues></_>
    <_>
      <internalNodes>
        0 -1 38171 3.9806727727409452e-05</internalNodes>
      <leafValues>
        -8.0247473716735840e-01 3.1152889132499695e-01</leafValues></_>
    <_>
      <internalNodes>
        0 -1 16727 -1.1944277212023735e-02</internalNodes>
      <leafValues>
        6.0758066177368164e-01 -3.6949551105499268e-01</leafValues></_>
    <_>
      <internalNodes>
        0 -1 63962 2.0743800327181816e-02</internalNodes>
      <leafValues>
        -3.4282484650611877e-01 6.5401577949523926e-01</leafValues></_>
    <_>
      <internalNodes>
        0 -1 4456 2.5268774479627609e-02</internalNodes>
      <leafValues>
        -4.4649025797843933e-01 5.2287077903747559e-01</leafValues></_>
    <_>
      <internalNodes>
        0 -1 67747 -1.9731666892766953e-02</internalNodes>
      <leafValues>
        2.7083113789558411e-01 -7.7080571651458740e-01</leafValues></_></weakClassifiers></stage10>
</opencv_storage>
