<?xml version="1.0"?>
<opencv_storage>
<stage12>
  <maxWeakCount>8</maxWeakCount>
  <stageThreshold>-9.2436975240707397e-01</stageThreshold>
  <weakClassifiers>
    <_>
      <internalNodes>
        0 -1 26559 3.5240131546743214e-04</internalNodes>
      <leafValues>
        -5.5518943071365356e-01 5.9101766347885132e-01</leafValues></_>
    <_>
      <internalNodes>
        0 -1 31315 8.6794253438711166e-03</internalNodes>
      <leafValues>
        -4.6389469504356384e-01 4.9072206020355225e-01</leafValues></_>
    <_>
      <internalNodes>
        0 -1 57513 -1.5527239069342613e-02</internalNodes>
      <leafValues>
        -8.5621404647827148e-01 2.4321272969245911e-01</leafValues></_>
    <_>
      <internalNodes>
        0 -1 72536 6.7101966124027967e-05</internalNodes>
      <leafValues>
        1.9677856564521790e-01 -8.8259524106979370e-01</leafValues></_>
    <_>
      <internalNodes>
        0 -1 20049 2.1553398109972477e-03</internalNodes>
      <leafValues>
        1.8120330572128296e-01 -9.5142489671707153e-01</leafValues></_>
    <_>
      <internalNodes>
        0 -1 64730 1.1256540892645717e-03</internalNodes>
      <leafValues>
        -6.0220760107040405e-01 3.1970626115798950e-01</leafValues></_>
    <_>
      <internalNodes>
        0 -1 69135 1.1060111224651337e-02</internalNodes>
      <leafValues>
        -5.6055581569671631e-01 3.2208973169326782e-01</leafValues></_>
    <_>
      <internalNodes>
        0 -1 20622 2.4254750460386276e-03</internalNodes>
      <leafValues>
        -3.3241096138954163e-01 5.6426745653152466e-01</leafValues></_></weakClassifiers></stage12>
</opencv_storage>
