<?xml version="1.0"?>
<opencv_storage>
<stage8>
  <maxWeakCount>7</maxWeakCount>
  <stageThreshold>-6.7618668079376221e-01</stageThreshold>
  <weakClassifiers>
    <_>
      <internalNodes>
        0 -1 37965 8.5212588310241699e-03</internalNodes>
      <leafValues>
        -5.8940398693084717e-01 5.9923666715621948e-01</leafValues></_>
    <_>
      <internalNodes>
        0 -1 47817 4.8583396710455418e-03</internalNodes>
      <leafValues>
        -6.7742294073104858e-01 4.0854269266128540e-01</leafValues></_>
    <_>
      <internalNodes>
        0 -1 48273 -7.3768198490142822e-03</internalNodes>
      <leafValues>
        2.9360526800155640e-01 -8.1916034221649170e-01</leafValues></_>
    <_>
      <internalNodes>
        0 -1 75729 -7.3725748807191849e-03</internalNodes>
      <leafValues>
        3.3040127158164978e-01 -5.9687882661819458e-01</leafValues></_>
    <_>
      <internalNodes>
        0 -1 12597 3.3296013716608286e-03</internalNodes>
      <leafValues>
        -4.7027400135993958e-01 4.2459282279014587e-01</leafValues></_>
    <_>
      <internalNodes>
        0 -1 25864 -5.5722327670082450e-04</internalNodes>
      <leafValues>
        2.7606186270713806e-01 -8.0422908067703247e-01</leafValues></_>
    <_>
      <internalNodes>
        0 -1 43845 -4.0219062939286232e-03</internalNodes>
      <leafValues>
        -9.3217957019805908e-01 1.8764583766460419e-01</leafValues></_></weakClassifiers></stage8>
</opencv_storage>
