<?xml version="1.0"?>
<opencv_storage>
<stage5>
  <maxWeakCount>6</maxWeakCount>
  <stageThreshold>-1.0469874143600464e+00</stageThreshold>
  <weakClassifiers>
    <_>
      <internalNodes>
        0 -1 32371 -3.3111860975623131e-03</internalNodes>
      <leafValues>
        -8.8495576381683350e-01 5.7829183340072632e-01</leafValues></_>
    <_>
      <internalNodes>
        0 -1 18698 1.1428514495491982e-02</internalNodes>
      <leafValues>
        -7.4562674760818481e-01 4.3640998005867004e-01</leafValues></_>
    <_>
      <internalNodes>
        0 -1 67852 -1.5237465500831604e-02</internalNodes>
      <leafValues>
        4.4646385312080383e-01 -6.7432373762130737e-01</leafValues></_>
    <_>
      <internalNodes>
        0 -1 17283 -1.0041337460279465e-02</internalNodes>
      <leafValues>
        7.5475680828094482e-01 -4.5003488659858704e-01</leafValues></_>
    <_>
      <internalNodes>
        0 -1 63721 6.2463238835334778e-02</internalNodes>
      <leafValues>
        -3.8455662131309509e-01 7.1796846389770508e-01</leafValues></_>
    <_>
      <internalNodes>
        0 -1 4452 3.8457896560430527e-02</internalNodes>
      <leafValues>
        -4.2264932394027710e-01 6.2926280498504639e-01</leafValues></_></weakClassifiers></stage5>
</opencv_storage>
