<?xml version="1.0"?>
<opencv_storage>
<stage17>
  <maxWeakCount>9</maxWeakCount>
  <stageThreshold>-6.1029940843582153e-01</stageThreshold>
  <weakClassifiers>
    <_>
      <internalNodes>
        0 -1 70143 -8.6229360022116452e-05</internalNodes>
      <leafValues>
        -6.7156863212585449e-01 5.1221638917922974e-01</leafValues></_>
    <_>
      <internalNodes>
        0 -1 53482 -5.4787318222224712e-03</internalNodes>
      <leafValues>
        3.4632462263107300e-01 -5.7924741506576538e-01</leafValues></_>
    <_>
      <internalNodes>
        0 -1 73097 1.6248242929577827e-02</internalNodes>
      <leafValues>
        -2.7650326490402222e-01 5.9887528419494629e-01</leafValues></_>
    <_>
      <internalNodes>
        0 -1 68619 -4.3318853713572025e-03</internalNodes>
      <leafValues>
        6.2612086534500122e-01 -2.8998985886573792e-01</leafValues></_>
    <_>
      <internalNodes>
        0 -1 32397 2.3104848514776677e-04</internalNodes>
      <leafValues>
        -7.3419964313507080e-01 2.1796773374080658e-01</leafValues></_>
    <_>
      <internalNodes>
        0 -1 10795 2.3902777582406998e-02</internalNodes>
      <leafValues>
        -2.1001555025577545e-01 8.2166427373886108e-01</leafValues></_>
    <_>
      <internalNodes>
        0 -1 17819 -6.4920326694846153e-03</internalNodes>
      <leafValues>
        5.5949926376342773e-01 -4.9190044403076172e-01</leafValues></_>
    <_>
      <internalNodes>
        0 -1 74249 1.6081664944067597e-04</internalNodes>
      <leafValues>
        3.7444841861724854e-01 -5.2206933498382568e-01</leafValues></_>
    <_>
      <internalNodes>
        0 -1 72579 -1.5570595860481262e-04</internalNodes>
      <leafValues>
        -6.0836708545684814e-01 2.8624904155731201e-01</leafValues></_></weakClassifiers></stage17>
</opencv_storage>
