<?xml version="1.0"?>
<opencv_storage>
<stage12>
  <maxWeakCount>6</maxWeakCount>
  <stageThreshold>-5.1968330144882202e-01</stageThreshold>
  <weakClassifiers>
    <_>
      <internalNodes>
        0 -1 38171 2.1526398995774798e-05</internalNodes>
      <leafValues>
        -6.4631581306457520e-01 5.4247188568115234e-01</leafValues></_>
    <_>
      <internalNodes>
        0 -1 27031 -2.1240516798570752e-04</internalNodes>
      <leafValues>
        3.2485285401344299e-01 -6.5586292743682861e-01</leafValues></_>
    <_>
      <internalNodes>
        0 -1 67551 -1.2517202645540237e-02</internalNodes>
      <leafValues>
        2.5742727518081665e-01 -8.1061685085296631e-01</leafValues></_>
    <_>
      <internalNodes>
        0 -1 34631 7.4785994365811348e-03</internalNodes>
      <leafValues>
        -5.4443979263305664e-01 3.3754709362983704e-01</leafValues></_>
    <_>
      <internalNodes>
        0 -1 70441 -1.0029771510744467e-04</internalNodes>
      <leafValues>
        -5.1194202899932861e-01 4.3466272950172424e-01</leafValues></_>
    <_>
      <internalNodes>
        0 -1 28933 -1.9026651978492737e-01</internalNodes>
      <leafValues>
        8.7164485454559326e-01 -2.4714168906211853e-01</leafValues></_></weakClassifiers></stage12>
</opencv_storage>
