<?xml version="1.0"?>
<opencv_storage>
<stage11>
  <maxWeakCount>8</maxWeakCount>
  <stageThreshold>-8.5560995340347290e-01</stageThreshold>
  <weakClassifiers>
    <_>
      <internalNodes>
        0 -1 72217 4.2172378743998706e-04</internalNodes>
      <leafValues>
        5.6779271364212036e-01 -6.0667902231216431e-01</leafValues></_>
    <_>
      <internalNodes>
        0 -1 42760 2.1523516625165939e-03</internalNodes>
      <leafValues>
        -5.4462248086929321e-01 4.7630238533020020e-01</leafValues></_>
    <_>
      <internalNodes>
        0 -1 72217 -1.4166446635499597e-04</internalNodes>
      <leafValues>
        -5.1282173395156860e-01 4.6672660112380981e-01</leafValues></_>
    <_>
      <internalNodes>
        0 -1 27535 -1.5807108953595161e-02</internalNodes>
      <leafValues>
        6.7263430356979370e-01 -4.0991649031639099e-01</leafValues></_>
    <_>
      <internalNodes>
        0 -1 71737 -2.6994913816452026e-02</internalNodes>
      <leafValues>
        3.0291256308555603e-01 -6.3370424509048462e-01</leafValues></_>
    <_>
      <internalNodes>
        0 -1 69795 1.4953498612158000e-04</internalNodes>
      <leafValues>
        2.9421028494834900e-01 -6.4483016729354858e-01</leafValues></_>
    <_>
      <internalNodes>
        0 -1 41063 1.9100961089134216e-01</internalNodes>
      <leafValues>
        -2.4783730506896973e-01 8.3106237649917603e-01</leafValues></_>
    <_>
      <internalNodes>
        0 -1 64657 -1.9132766872644424e-02</internalNodes>
      <leafValues>
        7.3136764764785767e-01 -3.3457136154174805e-01</leafValues></_></weakClassifiers></stage11>
</opencv_storage>
