<?xml version="1.0"?>
<opencv_storage>
<stage9>
  <maxWeakCount>6</maxWeakCount>
  <stageThreshold>-7.7322643995285034e-01</stageThreshold>
  <weakClassifiers>
    <_>
      <internalNodes>
        0 -1 43810 -1.4578548143617809e-04</internalNodes>
      <leafValues>
        -8.7958115339279175e-01 5.3321826457977295e-01</leafValues></_>
    <_>
      <internalNodes>
        0 -1 11321 -2.3557737469673157e-02</internalNodes>
      <leafValues>
        3.8593745231628418e-01 -5.5727225542068481e-01</leafValues></_>
    <_>
      <internalNodes>
        0 -1 32704 1.8628068501129746e-03</internalNodes>
      <leafValues>
        2.8147900104522705e-01 -8.5770964622497559e-01</leafValues></_>
    <_>
      <internalNodes>
        0 -1 47990 1.2307115830481052e-03</internalNodes>
      <leafValues>
        2.3042540252208710e-01 -7.8085649013519287e-01</leafValues></_>
    <_>
      <internalNodes>
        0 -1 68506 6.6275475546717644e-03</internalNodes>
      <leafValues>
        -3.1821414828300476e-01 7.3818773031234741e-01</leafValues></_>
    <_>
      <internalNodes>
        0 -1 32020 -6.1081135645508766e-03</internalNodes>
      <leafValues>
        -9.4286268949508667e-01 2.3303778469562531e-01</leafValues></_></weakClassifiers></stage9>
</opencv_storage>
