<?xml version="1.0"?>
<opencv_storage>
<stage15>
  <maxWeakCount>8</maxWeakCount>
  <stageThreshold>-1.1905654668807983e+00</stageThreshold>
  <weakClassifiers>
    <_>
      <internalNodes>
        0 -1 26281 3.1104036606848240e-03</internalNodes>
      <leafValues>
        5.2302348613739014e-01 -7.6381909847259521e-01</leafValues></_>
    <_>
      <internalNodes>
        0 -1 67278 9.3554630875587463e-03</internalNodes>
      <leafValues>
        -4.1115069389343262e-01 5.0437635183334351e-01</leafValues></_>
    <_>
      <internalNodes>
        0 -1 76124 -1.2899658177047968e-03</internalNodes>
      <leafValues>
        3.2990241050720215e-01 -7.0716935396194458e-01</leafValues></_>
    <_>
      <internalNodes>
        0 -1 70873 1.5128538012504578e-02</internalNodes>
      <leafValues>
        -3.6727666854858398e-01 5.9691947698593140e-01</leafValues></_>
    <_>
      <internalNodes>
        0 -1 3882 1.0550849139690399e-02</internalNodes>
      <leafValues>
        -3.2098820805549622e-01 6.9012409448623657e-01</leafValues></_>
    <_>
      <internalNodes>
        0 -1 44064 -7.2476116474717855e-04</internalNodes>
      <leafValues>
        -8.9142245054244995e-01 2.5032451748847961e-01</leafValues></_>
    <_>
      <internalNodes>
        0 -1 65686 2.2741488646715879e-03</internalNodes>
      <leafValues>
        -3.5926178097724915e-01 5.6636506319046021e-01</leafValues></_>
    <_>
      <internalNodes>
        0 -1 19702 -2.2617978975176811e-03</internalNodes>
      <leafValues>
        2.0193319022655487e-01 -8.6544400453567505e-01</leafValues></_></weakClassifiers></stage15>
</opencv_storage>
