<?xml version="1.0"?>
<opencv_storage>
<stage20>
  <maxWeakCount>7</maxWeakCount>
  <stageThreshold>-5.4236781597137451e-01</stageThreshold>
  <weakClassifiers>
    <_>
      <internalNodes>
        0 -1 43270 -3.3610741957090795e-04</internalNodes>
      <leafValues>
        5.9753203392028809e-01 -6.0539627075195312e-01</leafValues></_>
    <_>
      <internalNodes>
        0 -1 11996 -1.3189179822802544e-02</internalNodes>
      <leafValues>
        -8.4243595600128174e-01 2.8818762302398682e-01</leafValues></_>
    <_>
      <internalNodes>
        0 -1 10862 -2.4451971054077148e-02</internalNodes>
      <leafValues>
        3.1628480553627014e-01 -7.2634112834930420e-01</leafValues></_>
    <_>
      <internalNodes>
        0 -1 19847 1.9124748185276985e-02</internalNodes>
      <leafValues>
        -3.7582674622535706e-01 5.1088595390319824e-01</leafValues></_>
    <_>
      <internalNodes>
        0 -1 70190 8.6648259311914444e-03</internalNodes>
      <leafValues>
        -4.4522342085838318e-01 5.5115109682083130e-01</leafValues></_>
    <_>
      <internalNodes>
        0 -1 38962 1.3191974721848965e-03</internalNodes>
      <leafValues>
        2.4081727862358093e-01 -7.5928884744644165e-01</leafValues></_>
    <_>
      <internalNodes>
        0 -1 43589 -7.5451922602951527e-03</internalNodes>
      <leafValues>
        -8.4974271059036255e-01 1.9470211863517761e-01</leafValues></_></weakClassifiers></stage20>
</opencv_storage>
