<?xml version="1.0"?>
<opencv_storage>
<stage10>
  <maxWeakCount>8</maxWeakCount>
  <stageThreshold>-1.1292456388473511e+00</stageThreshold>
  <weakClassifiers>
    <_>
      <internalNodes>
        0 -1 32020 -6.1455769464373589e-03</internalNodes>
      <leafValues>
        -9.0724635124206543e-01 5.1507431268692017e-01</leafValues></_>
    <_>
      <internalNodes>
        0 -1 42760 2.1937135607004166e-03</internalNodes>
      <leafValues>
        -5.7214677333831787e-01 4.1295447945594788e-01</leafValues></_>
    <_>
      <internalNodes>
        0 -1 11321 -2.8667714446783066e-02</internalNodes>
      <leafValues>
        4.6826410293579102e-01 -5.2031999826431274e-01</leafValues></_>
    <_>
      <internalNodes>
        0 -1 61083 2.2266818210482597e-02</internalNodes>
      <leafValues>
        -7.1194994449615479e-01 3.1507200002670288e-01</leafValues></_>
    <_>
      <internalNodes>
        0 -1 69795 1.4950364129617810e-04</internalNodes>
      <leafValues>
        2.6315495371818542e-01 -6.8174731731414795e-01</leafValues></_>
    <_>
      <internalNodes>
        0 -1 44096 2.1031435608165339e-05</internalNodes>
      <leafValues>
        -6.1113035678863525e-01 2.8895118832588196e-01</leafValues></_>
    <_>
      <internalNodes>
        0 -1 17844 1.0913718491792679e-02</internalNodes>
      <leafValues>
        -2.4663314223289490e-01 8.3197182416915894e-01</leafValues></_>
    <_>
      <internalNodes>
        0 -1 16727 -1.0337185114622116e-02</internalNodes>
      <leafValues>
        5.5773341655731201e-01 -4.0601938962936401e-01</leafValues></_></weakClassifiers></stage10>
</opencv_storage>
