<?xml version="1.0"?>
<opencv_storage>
<stage4>
  <maxWeakCount>6</maxWeakCount>
  <stageThreshold>-9.3086332082748413e-01</stageThreshold>
  <weakClassifiers>
    <_>
      <internalNodes>
        0 -1 24207 -7.9980298876762390e-02</internalNodes>
      <leafValues>
        6.9458633661270142e-01 -6.1994606256484985e-01</leafValues></_>
    <_>
      <internalNodes>
        0 -1 18852 -7.4595771729946136e-04</internalNodes>
      <leafValues>
        4.5289999246597290e-01 -8.1746590137481689e-01</leafValues></_>
    <_>
      <internalNodes>
        0 -1 52978 3.4471056424081326e-03</internalNodes>
      <leafValues>
        -7.1936613321304321e-01 4.0861585736274719e-01</leafValues></_>
    <_>
      <internalNodes>
        0 -1 71739 -2.0830608904361725e-02</internalNodes>
      <leafValues>
        3.6017045378684998e-01 -7.7680146694183350e-01</leafValues></_>
    <_>
      <internalNodes>
        0 -1 12597 3.6327212583273649e-03</internalNodes>
      <leafValues>
        -5.2431029081344604e-01 5.6574589014053345e-01</leafValues></_>
    <_>
      <internalNodes>
        0 -1 26188 1.1246616486459970e-03</internalNodes>
      <leafValues>
        2.6207262277603149e-01 -9.7972232103347778e-01</leafValues></_></weakClassifiers></stage4>
</opencv_storage>
