<?xml version="1.0"?>
<opencv_storage>
<stage14>
  <maxWeakCount>9</maxWeakCount>
  <stageThreshold>-8.6096483469009399e-01</stageThreshold>
  <weakClassifiers>
    <_>
      <internalNodes>
        0 -1 49186 -3.2368130632676184e-04</internalNodes>
      <leafValues>
        5.4553735256195068e-01 -5.9126985073089600e-01</leafValues></_>
    <_>
      <internalNodes>
        0 -1 71557 7.5503997504711151e-03</internalNodes>
      <leafValues>
        -5.9785842895507812e-01 3.2981193065643311e-01</leafValues></_>
    <_>
      <internalNodes>
        0 -1 12597 2.2285825107246637e-03</internalNodes>
      <leafValues>
        -4.8555603623390198e-01 4.0829667448997498e-01</leafValues></_>
    <_>
      <internalNodes>
        0 -1 32003 5.4240314057096839e-04</internalNodes>
      <leafValues>
        -5.9494590759277344e-01 3.2670331001281738e-01</leafValues></_>
    <_>
      <internalNodes>
        0 -1 33275 2.1988195658195764e-04</internalNodes>
      <leafValues>
        -5.2905088663101196e-01 3.3181887865066528e-01</leafValues></_>
    <_>
      <internalNodes>
        0 -1 65694 3.2712980173528194e-03</internalNodes>
      <leafValues>
        -3.3474886417388916e-01 5.9979742765426636e-01</leafValues></_>
    <_>
      <internalNodes>
        0 -1 43966 -1.4490150846540928e-02</internalNodes>
      <leafValues>
        -8.5788047313690186e-01 2.2175410389900208e-01</leafValues></_>
    <_>
      <internalNodes>
        0 -1 50994 1.3029539585113525e-01</internalNodes>
      <leafValues>
        -2.6257824897766113e-01 7.9738533496856689e-01</leafValues></_>
    <_>
      <internalNodes>
        0 -1 67504 -9.8676886409521103e-03</internalNodes>
      <leafValues>
        5.3077036142349243e-01 -4.6915137767791748e-01</leafValues></_></weakClassifiers></stage14>
</opencv_storage>
