<?xml version="1.0"?>
<opencv_storage>
<stage3>
  <maxWeakCount>5</maxWeakCount>
  <stageThreshold>-1.3228325843811035e+00</stageThreshold>
  <weakClassifiers>
    <_>
      <internalNodes>
        0 -1 64682 -2.4733157828450203e-02</internalNodes>
      <leafValues>
        7.6187992095947266e-01 -7.1210193634033203e-01</leafValues></_>
    <_>
      <internalNodes>
        0 -1 18631 4.1442506015300751e-02</internalNodes>
      <leafValues>
        -7.1541339159011841e-01 7.0823758840560913e-01</leafValues></_>
    <_>
      <internalNodes>
        0 -1 60094 1.1087394505739212e-01</internalNodes>
      <leafValues>
        -4.1638812422752380e-01 8.0619472265243530e-01</leafValues></_>
    <_>
      <internalNodes>
        0 -1 12178 5.8590117841959000e-03</internalNodes>
      <leafValues>
        -4.3568861484527588e-01 7.6324093341827393e-01</leafValues></_>
    <_>
      <internalNodes>
        0 -1 34631 1.6409680247306824e-02</internalNodes>
      <leafValues>
        -4.6689158678054810e-01 6.7579805850982666e-01</leafValues></_></weakClassifiers></stage3>
</opencv_storage>
